function [Y,Xf,Af] = Predict_yield_3(X,~,~)
%MYNEURALNETWORKFUNCTION neural network simulation function.
%
% Generated by Neural Network Toolbox function genFunction, 06-Jul-2017 18:38:33.
%
% [Y] = myNeuralNetworkFunction(X,~,~) takes these arguments:
%
%   X = 1xTS cell, 1 inputs over TS timesteps
%   Each X{1,ts} = 84xQ matrix, input #1 at timestep ts.
%
% and returns:
%   Y = 1xTS cell of 1 outputs over TS timesteps.
%   Each Y{1,ts} = 1xQ matrix, output #1 at timestep ts.
%
% where Q is number of samples (or series) and TS is the number of timesteps.

%#ok<*RPMT0>

% ===== NEURAL NETWORK CONSTANTS =====

% Input 1
x1_step1.keep = [5 6 7 8 9 10 11 12 13 14 15 16 17 18 19 20 21 22 23 24 25 26 27 28 29 30 31 32 33 34 35 36 37 38 39 40 41 42 43 44 45 46 47 48 49 50 51 52 53 54 55 56 57 58 59 60 61 62 63 64 65 66 67 68 69 70 71 72 73 74 75 76 77 78 79 80 81 82 83 84];
x1_step2.xoffset = [535;535;535;538;539;541;537;536;535;536;536;536;536;543;539;536;535;535;535;535;540;591;613;610;606;603;600;597;596;592;588;583;578;573;568;571;565;559;553;546;540;537;534;533;541;535;533;531;537;532;532;539;535;532;533;532;533;530;528;526;527;525;526;524;522;523;521;520;519;519;593;588;582;579;574;569;563;558;553;550];
x1_step2.gain = [0.0425531914893617;0.0454545454545455;0.0512820512820513;0.0540540540540541;0.0540540540540541;0.0526315789473684;0.0512820512820513;0.0526315789473684;0.0526315789473684;0.0555555555555556;0.0571428571428571;0.0571428571428571;0.0588235294117647;0.0606060606060606;0.0540540540540541;0.0303030303030303;0.0317460317460317;0.0333333333333333;0.0344827586206897;0.0357142857142857;0.0384615384615385;0.0425531914893617;0.0425531914893617;0.0434782608695652;0.0444444444444444;0.0253164556962025;0.0256410256410256;0.025974025974026;0.025974025974026;0.0263157894736842;0.0263157894736842;0.0263157894736842;0.025974025974026;0.025;0.0229885057471264;0.0172413793103448;0.0172413793103448;0.0173913043478261;0.0173913043478261;0.0172413793103448;0.0172413793103448;0.0173913043478261;0.0168067226890756;0.016260162601626;0.0153846153846154;0.0137931034482759;0.0140845070422535;0.0143884892086331;0.0151515151515152;0.0147058823529412;0.0149253731343284;0.0161290322580645;0.0161290322580645;0.016260162601626;0.0163934426229508;0.0147058823529412;0.0155038759689922;0.0158730158730159;0.0163934426229508;0.0169491525423729;0.0175438596491228;0.0168067226890756;0.0168067226890756;0.0168067226890756;0.016260162601626;0.015748031496063;0.016260162601626;0.0165289256198347;0.016260162601626;0.0166666666666667;0.0204081632653061;0.0198019801980198;0.0192307692307692;0.018018018018018;0.0176991150442478;0.0170940170940171;0.0163934426229508;0.016;0.016;0.0150375939849624];
x1_step2.ymin = -1;

% Layer 1
b1 = [-1.4434345309433481;-0.95946901620825931;1.1105820082244771;1.1302754282838305;0.62478459601070258;0.66396627319641133;-0.32652753878703583;-0.25735882169298813;0.26963393637306171;-0.28091540101800189;0.98334254633500517;0.71880010765246216;-1.1192373147597807;1.1976045404857492;1.4726512788806208];
IW1_1 = [0.1554549302650742 -0.25655812720381166 -0.31293627169222665 -0.19584117739644555 -0.026263865237222617 -0.41351316938339966 0.018207848341824873 -0.18511080485704989 0.066304977098049139 0.19524456392178019 0.033994200187554238 0.10546574898351954 0.24482786737083312 -0.066523061318279342 0.054984809270666887 0.16237339751826221 -0.26740577382123021 -0.12771023798171419 0.46033845434685999 0.0032851285098190811 -0.24945809409171524 0.16350595823163783 0.16340647052302831 0.3647782880279315 0.41869294114995165 0.13869558119083311 0.41632561363090032 -0.18700959891215152 -0.017535267722542693 0.10101411867183463 -0.079574349262769406 0.10128716429297192 -0.205685920196016 -0.026528157524236588 -0.36623461853245071 0.18844307557810985 -0.23145994383906915 0.094662616242280853 0.17066113442203468 -0.031956891890066674 0.32079638413709255 -0.46956224853647421 -0.32057114910286238 -0.26882616979876062 0.0064946800769110722 -0.045673322616190191 0.03963053508967336 -0.17846714030916477 0.12567151097313259 -0.44172440911531907 -0.31496506309372918 0.14447100699484461 0.16855749367298939 0.46049918102054282 -0.05613481972068108 -0.081083351728828787 -0.20962256061146048 -0.36137561329498674 -0.54688155293585783 0.027815983112258243 -0.019151045718228048 -0.72990583286712163 -0.62457729573319187 -0.16875487793238575 -0.085579519567197546 0.18481257937234191 0.26555575678925303 0.035775543825039315 -0.22492666386956209 -0.14107891447398244 0.20819154287350142 0.26064183848050915 -0.27841143801715273 0.33696571264351272 0.015823679080970543 0.060619106033855466 -0.2498324590978736 0.24433034938171996 -0.010201788316313139 0.11410243210292323;0.031424761646308384 0.03812531261672697 0.22353988243042239 0.19069644378120404 0.58800484450117374 -0.0081551036092372183 -0.054860367694800974 0.40335201842278345 0.2878273367032228 0.23550796601987053 -0.14860725044067094 -0.34406509849841799 -0.078564899487366585 -0.10095439812234493 0.026304540638027823 0.15627432001192046 -0.086087219891941708 -0.12601906068584387 -0.23932237657165323 0.047357051938261549 0.32961015312032949 -0.35031908724253868 -0.38258418378533632 -0.36922861645570937 -0.029453896364451268 -0.37579580098176246 -0.21068619863360455 -0.029619744746603314 -0.30028854567437668 -0.30053797757635292 -0.35572985306899807 -0.37644764047274765 0.06592319289973507 -0.13510219420515329 -0.3153361936355033 -0.24586095112395001 -0.28547208730081214 -0.42518219420184306 -0.67862882141047665 -0.066926854042500386 -0.25606224880366479 0.18508294751269372 0.36396243260852718 -0.30019385434122214 -0.20868245286911985 -0.10158972995326108 0.34187981173602505 0.2906777487697087 0.29588470323710708 0.96980307127358101 0.38103387990687515 0.38477081450609729 -0.01669418947596793 -0.21055160259187006 -0.035810244581749175 0.14350121480112341 -0.44043748838036384 0.016531778168210449 0.17644459210484956 0.017549459105608099 -0.41644603886949205 0.27889903575737451 0.17999383149266862 -0.19484756295972616 0.089967690273429962 -0.0017380564927015792 0.39841172295897775 0.24346622320922048 0.21626808179229912 0.36490101057571855 0.36268376096616128 0.16059331283056966 0.1650282547091165 0.22715261879858081 -0.22052987407441918 0.22961957687974172 -0.14027452343496549 0.10260923786897148 -0.27950960152806165 -0.019404927195220644;-0.025880821680493535 -0.12973652689124032 -0.45881140629209211 -0.40572892842124064 -0.091224514561384709 -0.032662081931636153 -0.22436773821302364 0.1306156768596837 -0.22665703310841917 -0.17197520642251973 -0.17653462426228106 0.26219564363920694 0.10632695227586665 0.078015828788174368 0.0082886891909461618 -0.034184733705058618 -0.068005111924950123 0.3195740956943639 -0.25828343774276163 -0.033849901735374388 0.13020751347253107 0.15023505196407122 -0.22213982556436929 -0.061820891845069066 0.23702040167856325 0.21138680645323479 -0.21459544184274851 -0.19177564416826523 0.18806243635966394 0.16056734922510732 -0.27896675527899972 0.038129501915867801 0.044541655410073794 -0.021794012625038148 0.19700708732791256 0.046259358141552458 0.058220389114011804 -0.035277992019648395 0.12559890469357235 -0.070327866271525943 -0.023495190061604752 0.16090755450923208 0.19784486428644987 -0.053782182439336128 0.094003508387011089 0.31513645081600539 -0.018039312468061394 -0.12745907912173357 -0.33028164885625449 0.1086629514348591 -0.083422022968261525 0.23027266389949017 -0.17442950836216464 -0.39404778078243757 -0.19673354886628344 -0.54042381519991978 -0.22719265033966024 0.14871634920523219 -0.27823921137225827 -0.17316254966596664 0.21405590292311577 -0.096158389861478719 -0.20376437983306717 0.013172500077950984 -0.090394645498529685 -0.32347511189821665 -0.036146891068631934 -0.13838482534222701 -0.17477477888831672 -0.23289639750786123 0.013847125859618446 0.094334997121452074 -0.18712675245538327 0.04069733247425366 0.047739945030686758 0.1705210186476461 0.087342416345461679 -0.20229127946256859 -0.19089720074620453 -0.18338274187208428;-0.24112563799137696 0.071568797971151774 0.28356586585516885 -0.31062884906535654 -0.34526840494546501 0.14876048248177035 -0.084827250489659056 0.20850594573878681 0.06182627064692995 -0.033109350191236786 -0.088676546217503746 -0.14340058796888114 -0.11454278059630013 0.39990959261786269 0.22636120579528746 0.043339143165198518 -0.1992512952494267 -0.0049868425592551752 0.4423411245594096 -0.14677685249014102 0.30697802218601156 0.49054339217674847 0.31754649844937377 0.065116781025528342 0.23031304841859279 -0.10798477236731716 -0.0013724210171640111 -0.082207881699338348 -0.19980881351025215 -0.008938037114080942 -0.10855085431421686 -0.053692911983651795 0.063997712962017367 -0.077542439992671519 0.046137761465120122 -0.13418112379558794 -0.22334919740184378 -0.18941934542854683 -0.11650626412787737 0.12405245319011246 -0.034926743651986801 0.054354959912003772 0.33620346785751792 0.57290497757081549 0.23584168325035285 0.21837133851307997 -0.18232135582078676 -0.087942228588914165 -0.29312330185957419 -0.11709343442269002 0.21091325243918599 0.22113477446873767 0.052179669497341583 -0.22943369909198072 -0.43294693515240296 -0.43665130913169015 0.13424858279288363 -0.01665798259437961 -0.46883159504910699 0.26667139945724999 0.27451341925352873 -0.55666699798970321 -0.049415628228100306 0.65998357929105322 0.22103342828553305 -0.010404300654327492 -0.013753231973285384 -0.19170477393568944 0.19095488103816446 -0.13729644112512196 0.18158380927346787 0.10371896386003233 0.15369079383299103 -0.30782217593265276 -0.017223498026073935 -0.040406832782834537 -0.21314548041565232 0.082388643546523144 -0.17306044253855882 -0.059899565666424522;-0.19448885918698258 0.30287952789490058 -0.34030230806605816 -0.029593121276889869 -0.36317643755601797 -0.29432015852769527 -0.23585991693155403 -0.074272515511191003 -0.31439865206964362 -0.15953008515460482 -0.25027471831251441 -0.15183599137017681 -0.40501523869270772 -0.60551667345574911 -0.17013000330352296 -0.35307773871897236 0.18518917365028612 0.028461155495250003 0.067722802660945561 -0.47132884532142416 -0.18044002714707172 0.077535162034056263 0.085630150242886768 0.13624799621967426 0.26250902177812746 0.36242085892073617 -0.12942156831992996 0.27677080903768836 0.32227682725197992 0.34751408251809401 0.024846989570597347 0.32196488815940461 0.31439456798535548 0.36720610601236742 0.22024863169416822 0.2849715179451201 -0.1855908852094037 0.27035902481312846 0.084401766542883158 -0.062782880852770798 -0.028544095397633862 -0.048216939318817355 0.31519562052294708 0.2865205772780125 0.6954208557578172 0.39383857483177148 -0.2148877103096761 -0.31659837510330641 -0.12668292622767632 0.11524295041259502 -0.11755384807108024 0.10336307118198872 0.24358446423661842 0.080720921616335345 -0.051094846349706541 -0.33956072728824932 -0.14597936973623513 -0.30410280909899201 -0.30062652186578914 0.12410372334915079 -0.0047098302209153883 -0.14014829402837972 -0.22780500361054434 0.18111745594266709 -0.11473577732902648 -0.059641076936658405 0.19603490430780116 0.31373767556458443 -0.068911401136584394 -0.085407858270859754 -0.20914012220216807 -0.031935025759464636 -0.055379951297753804 -0.28459967252674429 -0.34654902209891125 -0.039344446082569276 -0.080252662610865624 0.11380997108004989 -0.0017552074770006056 -0.26079177499738276;-0.43867065524415116 0.060647113038277738 0.19302087307928611 0.042524343798797465 0.023199209361983251 0.27103899117567176 -0.0021759397086801502 0.28719399138114432 0.0075287742731266838 0.042250999252404116 0.11018566531794291 0.024654591700955599 0.12249170715589217 0.13752439159921862 0.14828046473820025 0.13041550815841299 0.27995163689302399 -0.23251520212929105 -0.04265570167354775 0.33985192103730094 0.11825814906705837 0.009749202231700697 0.23648187026655257 -0.025223356183008371 0.26575054075685717 -0.33458048685176206 0.058715387462864164 0.008101500490623418 0.077635962276646445 -0.10649179139361216 -0.21093740651529974 -0.20720808550439498 -0.079538856491743581 -0.098055549442339823 -0.017483805755235622 -0.26756828802266214 -0.29163020078113988 0.051116447693513006 0.0030292232275695606 0.18797929166246621 0.10110871403856689 0.063972751289141469 0.30616429017114244 -0.35353649015075805 -0.30632907298001044 -0.20201174342763686 -0.020554180157025592 0.19627420059796669 0.35371990587073709 0.046836211827158733 0.094164827588080063 -0.12795273637861729 0.0069297029665431626 -0.21017829756779588 -0.20606369353931825 -0.060792276498878674 0.14809789987251593 -0.06491680519663616 -0.17485344302419442 -0.35251397773229015 -0.10167339420935179 -0.13084429288624422 -0.24838444764650569 0.092475689089070778 0.096432715644519412 0.18867604922558218 0.089665905101824664 0.10122934504508026 0.056249562971961611 0.18878031560492825 0.1172151902007449 -0.32872764915395769 -0.17054773201623263 0.12096861374033593 -0.23543716100476461 -0.13367142036482726 -0.24198486050893905 -0.18617004509025548 -0.070785312271506362 -0.29835593523564841;0.18025706381073123 -0.15930795737591719 0.19975505820910175 -0.027565816796669855 -0.065796523039734434 0.023192530346778425 -0.32717346576779138 -0.069235877318578345 -0.17683230511755507 -0.033337857482200521 0.17072012422163244 0.32283944119994851 0.24001110689065774 -0.14728900252887739 0.018308264923342341 -0.152187563792545 0.08544558357046951 -0.053435498072305895 -0.080311777845739854 -0.069178331629721437 -0.15344473224345265 0.21056292829365897 -0.016897851423555543 0.27788961175547555 -0.016421086570056566 0.0087509756888575988 0.27765514604386665 -0.1814578775033926 0.13056490888246744 0.23228945213164875 0.22474925942002083 -0.1869231313418071 0.19570660914940721 -0.11197243606355993 0.016290968734660686 0.013332090652371243 0.14274140084474488 -0.046467704167932208 -0.014787240121401327 0.17858320366478558 0.080244303231120168 0.010892547510359485 0.13974370361128652 0.2969372787767689 -0.056907866037548133 -0.23263231783946173 -0.20452757976812713 0.25630066569338095 -0.041981338853811008 0.19787073670263214 0.19446795640753717 0.0032908097723097413 -0.16929254124989315 -0.22177744357157927 0.21467831389027225 0.11555865405153987 0.17989554707315941 0.054400456931243374 0.31198037657663108 0.04585928931555406 -0.010116852916751906 -0.13094233025592181 0.16085666044316221 0.2407980267538504 0.26724366319592013 -0.077895484460262121 -0.07103465002121348 -0.030907456569052059 -0.034433979605226789 0.0083998513314583901 0.27032713540036041 -0.034058864168325584 -0.010493000762026484 0.13476659823381582 0.11759577413278009 -0.037847321056098414 0.25030153719663556 -0.16233602246748879 0.33793522288149569 0.36509296329578028;0.044458921530339202 -0.13302645242371147 -0.084485513443239083 0.1303851859777673 -0.62982910666071601 -0.43373689413059285 -0.35685425812842708 -0.061137886163359703 0.32712213962148995 0.33680931278759374 -0.025442194905642902 0.11833541107775852 -0.05674113918174209 0.36589009129144556 -0.20101541573546267 -0.01832612624378805 -0.26003110963549536 0.16750331344615532 -0.27807337249649744 -0.52855405763325702 -0.51737166474740592 0.25473482811018155 0.10893167642317259 -0.17437169735702762 -0.49709161809081831 0.33372165407642918 0.1401486224784875 -0.39345109277200163 -0.020757497351901424 0.19258755246953205 0.070870770446592929 -0.083598808527846485 -0.13298733737298604 -0.073157529668192681 -0.25472131546988697 -0.059357996582761731 0.092596350854078524 0.014474455148641988 -0.055924722050211692 -0.32863899710291605 -0.59078745428467705 0.44589220997342488 -0.08854671208720391 0.31845711834004559 -0.37346702406938653 -0.073589272137434394 0.079576012781979566 0.1438171173460101 0.14660619421159504 0.44173274856355232 0.5301816064628817 0.029318959240700139 0.044388623998213236 0.21884451857986492 0.57715088021225625 -0.27157542215723951 -0.17877779916985465 0.50727185155707588 0.0063518026122662986 -0.48939013776266699 0.14706125448490021 0.10893998417785053 0.27071696217352548 0.25936926820188683 0.10289211091882956 -0.090654203790998283 0.60956274818980061 -0.18593076581584 -0.019685281954202327 0.61359117957153797 0.10291313343582589 0.22971109419481345 0.14169393288576829 0.19453443767178699 0.09466469856110897 0.011442260447633842 0.045910062633984762 -0.12188778545410829 0.36700271088792269 -0.16773437563715593;0.1355457577633955 0.07082191094102766 -0.59788215160047109 -0.33747402646150482 -0.27139279955753343 -0.10365802713848808 -0.033607929170206635 -0.14075016515713962 -0.14838255778801202 -0.54256595001773578 -0.18146185328960002 -0.52756711818705093 -0.47450878480336306 -0.25628017522052043 -0.093490335490038837 -0.11159101299758614 -0.20798129755401415 -0.31835076877853546 0.30052803205312023 0.16329236464326763 0.42904666133801289 -0.24205459885007188 0.033120784271242265 -0.19711646584447334 -0.30321638476714402 -0.39900547455519803 -0.24747373808773182 0.16482147340420852 0.38538469740062803 0.25602916154533234 0.046182024408070191 0.0010315743822684647 0.1787484774061846 -0.22643824995041009 -0.20015000144328823 0.089994487124905695 0.13400709395192309 -0.32816429043846557 0.050356933972827984 0.17864913709167396 -0.13288563161613604 -0.22481600304326047 0.62582311176897021 0.029828748538582039 0.34089297723422479 0.30414467535367357 0.22560236291579186 0.19151921365377658 0.52386636698067424 0.69790473871922165 0.66832171729639722 0.18638739761475157 -0.011867910810385792 -0.37801915746176801 0.15956709504553038 0.54189204623405307 0.23286079524283324 0.25311354652702373 -0.0259215504234174 -0.059695057442674143 0.43258102662215325 0.6990737982854317 -0.038177562084500141 -0.40322634334477292 -0.13020474966745382 -0.21586187050339595 0.13006909755286977 -0.088269979976706867 -0.1782795076840272 -0.10888102389322422 -0.13389810133658292 0.13347744780389856 0.0037096086371329225 -0.078872884791102993 -0.07544045517374362 -0.21249428435183082 -0.20504624580997977 0.093357663270609625 -0.43521349735921139 -0.15572954561094088;-0.40879163385754935 -0.26477606270552212 -0.57086523469999861 -0.58970914930435503 -0.54280659025021272 -0.036486365327060281 -0.20743364860401803 -0.21662986376946711 0.1116116405626752 -0.33806414857793532 -0.11778264920355673 -0.13457515796191263 -0.069312112027850703 -0.44365334794512795 -0.11901138609623013 -0.29867451440548048 0.47491294933434886 0.29884366430177983 0.27899664602997298 -0.44286496933181851 0.061032053581949401 -0.039840362746780558 0.41943119126322237 -0.041447621425952534 -0.0088044531593676686 0.044669722631759029 -0.18063318287760721 0.06401629597816498 0.086895892976624908 0.13075123572793987 0.52460262460842599 0.36565700333151252 -0.015408498058595994 -0.10897606766873653 -0.24913737911570397 -0.24762720556493123 0.0077932633732072897 -0.085394408761019863 0.19378079830607464 0.1040496232627988 0.24981152471079393 0.34295168012946015 0.27253620926672201 0.22109143087983091 0.15421916031048347 0.30898518729913393 -0.44773528302034266 -0.066397676179797166 -0.33217853238866779 -0.4479723879294184 0.1856280774841042 -0.50431890864552309 -0.080633485109113529 0.41721626688920288 0.33895566208061007 -0.061545816518955347 0.40894453528167718 -0.25222895393746947 0.012535123899330376 -0.23585953564396794 0.512622799539041 -0.229884873051862 0.47626740753574553 -0.0329045070495083 -0.21695390278970525 0.21127630305647541 0.28265516376810124 0.088410880365226208 -0.045196458168064751 -0.051283084691385115 0.30055262868030908 -0.013650402614455258 0.13911575979401655 0.045758032172396344 0.013570216680054077 -0.21529876606394216 0.020678637935156112 -0.19507626376086018 0.26661505081101278 0.17772711765894914;-0.11712664534777105 -0.10434047760812977 0.029780500978761219 0.00024838160226833871 0.28477674548712412 -0.43114696055560126 -0.18142796071527334 -0.047595948662450316 -0.57948968400968004 -0.33404209259609735 0.019163067099328072 -0.25715660059963291 -0.46825822628083863 -0.11767119705185546 -0.042401454967836691 -0.17373544278506087 -0.19152109524479349 -0.54725586194200604 0.77431282337865315 0.44480728066284086 0.48635043757368318 0.15466552215543422 -0.095544613655759447 -0.034865237619962637 0.18645947457729251 -0.14604862981077088 -0.03277657883746618 0.36371123150865931 0.44358294416844812 0.28121848034129909 0.014557521309202646 -0.052638291219713265 0.49536773426622549 -0.1577812563459752 0.0962152131815803 -0.12303978369827295 0.012736821887743038 0.20795197983375063 -0.12556281264742442 0.33605046572242642 0.017333972699918952 -0.41181586295048461 0.3444718549196375 0.19453025265854859 0.17204595928767324 0.30814257768144276 0.50517101201689896 0.11464437553442058 0.70735275095891692 0.34920449569939233 -0.32392029976127046 0.36992072170077211 0.28286202177454373 -0.17234977113780275 -0.13198597426725345 0.71933437320320548 0.41018797840202414 0.29574662324080575 0.14114753328039834 0.20065422444959868 0.082125434579781414 0.13117319178716358 -0.072199830062163114 0.28492450895010707 0.0076727042289887887 0.18661681425994844 -0.43230359363435811 -0.078048322036124163 0.30732327184391511 -0.23166882335401989 -0.30476997527176991 -0.27350045474153034 -0.1294190868976639 0.11548618519207998 -0.18587292374732964 0.038864115286124185 -0.049502807197826543 -0.11459124242316802 -0.23614456778326184 -0.1557216994125481;-0.13259211545029778 -0.5115958947191247 -0.55248790970956829 -0.53884835913045404 0.049021519041095793 0.2453959441383512 -0.28724464848590425 -0.13459755025740308 0.042361868087708296 -0.12379559136548876 -0.11411245531190831 -0.32104719963107953 0.26996083057335613 -0.12937291215155317 0.12481536751575444 0.20192335397222078 0.20106383599570163 -0.086065800916609661 -0.34274235516601798 -0.15517084639801929 -0.070505400578130026 -0.33753516313324683 -0.28114432920094873 -0.1039498626277006 0.081836033215171855 0.020924124773159986 0.12077691844365701 0.17443945874938416 -0.24090029370341881 -0.063435154697029178 -0.02282496672457985 -0.1653601316620813 -0.04217692230023707 -0.11621267951073663 0.13595096017509831 -0.0011175797101312425 -0.0076449898407610142 -0.22006776843004583 -0.053104575308918808 -0.30851814308712039 0.19203139707764216 -0.071431342899091671 -0.19339815026919951 -0.2851140382178316 -0.34913168850564702 -0.14350525736651215 0.041928516288940849 0.34295450822879631 0.46529811486347955 0.16316063890337248 0.14091077592741319 0.26664048702458704 -0.032973707114136018 0.18044862492295805 -0.22383546226589515 -0.16805937929470691 0.10625107586764744 -0.0078393122560050134 -0.058591774463083127 -0.092890996915925728 -0.01457973653150826 0.016178133038029167 0.018130959665939549 0.051701940420698492 -0.25039351136508126 -0.35494666214205073 -0.25581913738385753 -0.22111686511740791 -0.29723980863941396 0.042169291565302663 -0.21584789938975341 0.19393361654932859 0.23433774781101657 0.12086841034747731 0.090107838775805638 -0.045415085525802465 0.11169117709017645 0.10150209622977889 -0.12940023380504162 0.0010938206641535864;-0.18152651971626196 -0.02221786571451476 -0.28096083116820753 -0.089813953959578252 -0.16934714302551629 -0.38383289428899697 -0.16067861071455139 0.058226929522906978 0.24020578580958538 0.19980309904311391 0.21678986365879058 0.1656578393456502 -0.29612783032300805 0.22497884350878922 -0.30754597624315383 -0.054518316439697179 -0.043886289097049634 -0.31074694589773583 0.24182147207883553 -0.21752504700136871 0.060014674946151175 0.0028222736174603937 0.033864324155129251 0.039109392265454318 -0.20531513115101749 -0.02024259429896557 -0.12120605007527746 0.095143436941996631 -0.25886206828939717 -0.29776725785938707 -0.24238307238953255 0.21918349490858122 0.12765959280210296 0.18344410980494114 0.057619305651205585 -0.27390447216861052 0.19665906451751206 -0.0021412667460271421 -0.062320177548286435 -0.081270439219364998 0.0041493538146620233 0.21864841476292279 0.075121312597949616 0.13583987096465433 0.0056064055635473876 0.2277306730255054 -0.14788736878091902 0.072725048368600137 0.14546003754260176 0.0039891578206904879 0.14332007346464165 -0.16549804979601906 0.28975287185525667 0.18073416305174209 -0.034861223688089679 -0.06848115866198938 0.14084936576738738 -0.041076399266334447 -0.026410772379425657 0.21702247985344844 -0.032264414507639158 -0.38871921934914561 -0.23229337030588665 0.13903722225496726 0.15108015445128756 -0.30809177889667644 -0.14137407752881867 -0.28527843280687409 -0.24092925572796478 -0.085615729664168028 -0.039178619649760181 0.2434881336043106 -0.12881276145982765 -0.28325078583442359 -0.19280243615727405 0.054862900102573837 0.01054617601793631 0.023109195790653961 -0.24214190432391475 0.063957538749885523;0.31926257833914945 -0.067354474163222766 -0.0058768573361901826 0.19052140312365115 0.093823800407590599 0.42766596131921497 0.022336820182486325 0.087695574316780808 0.25266019055106437 0.03870803367611178 0.12048789256750203 0.40703800342530855 0.34087853972968296 0.072163625088697406 -0.043102143048979462 -0.015592924579933711 0.41532671321122849 0.42733364939897994 -0.1509745052257089 0.29399967851466469 -0.065086709074783311 0.075274385407329392 -0.15556488901580334 0.13169165834586161 0.094711461125959295 -0.16719235698827212 -0.17453444913060379 0.066869391053621385 -0.035524444678309175 0.090488419595003131 -0.20628118931970046 -0.47411496423345756 -0.27110622400998224 -0.01432438911999645 -0.051024737138835187 -0.23602793331381541 0.098885649259695285 0.00021936546740039618 -0.0033332876006824681 0.17283561728330335 -0.26572413513492005 -0.13170365583276761 -0.045634349055770788 -0.090309027159345329 -0.011967126344845376 0.042138932862803784 -0.045844046591105587 0.27363055194754399 0.0036232673130711947 0.0071297419211787732 0.14736099877773304 0.073472462408485817 0.24789655983727404 -0.2403662856456221 -0.35715371475728186 -0.21646114744908512 0.34557289283378789 0.081046273886632159 0.25194080674511726 -0.13867760748427205 0.14077178346160962 0.041195494121229387 -0.029783187542104982 -0.16475530843870209 0.046250967907104902 0.22636749196448364 0.31012452918498401 -0.10274348017572202 0.2481267129496601 0.077359859509635823 -0.034613764924705324 0.17722426595422405 -0.1013359066217247 -0.049038175078244609 0.27353182423171452 0.34224330394761365 0.32014753379618638 0.21101804868044602 0.020100340414958642 0.1580905236448408;0.13915534747777128 0.056873943311700467 -0.23620534904628956 -0.31606925467389957 -0.14730205345994535 -0.29139978585215937 0.069928045012242979 0.30885672085046156 -0.23831646092095934 -0.22244331842837436 -0.1575399441576622 0.25012224321501619 0.20789415649825202 0.18010258425740586 0.20444526633311016 0.066458975883495891 0.1543172525598478 -0.039591453779090582 0.0032932168756267853 0.084201147275572708 -0.097260302303187163 0.28673522844690452 0.17428012569372592 -0.11398673454358017 -0.03859224440075873 0.073257166437370694 0.0080340507322763793 0.070456861735594817 0.14140624924067399 -0.17398054599843188 0.09312692931208133 -0.26885992807424913 -0.077594027229866025 0.063391543821325974 0.22186617698001837 0.17261343791794453 0.16367139414396653 -0.020791913318715695 0.12268930272767695 0.23008483117410614 0.013142279059814051 0.029392199548506442 0.2029452853534307 -0.29354358890912091 -0.043817708599796237 -0.21724620227909883 0.11461758443650927 0.27103714018522984 -0.046465261760863824 0.22263208628921535 -0.18614715627531586 0.041487375844270785 -0.042423616337272541 -0.071375074915901685 -0.29219004546183786 0.20449384897155282 0.00033556810817638415 0.27504323841683681 0.3540097380874781 0.17667832748973589 -0.25934753346684608 0.10543920186171538 0.17455631112965 0.21338645794731603 0.23149488248907346 0.44069336926867203 0.043292924242053742 -0.22041950816587627 -0.014909619142561455 -0.19409520454475959 0.0091940905919691736 0.05055949355780049 0.2045681224133428 -0.18120630123408044 -0.18865068961204184 -0.10089894707476224 -0.099350013434131829 -0.086985534131530373 -0.078294209500487003 0.23093811409055021];

% Layer 2
b2 = 0.14907383746453121;
LW2_1 = [-0.57666542153751454 0.28969321401078513 -0.31130489405223738 -0.56198457028536974 -0.40986893953364723 0.02843078007343006 -0.051943271156199816 -0.89610246696340878 0.74792971080000137 -0.30661100545868425 0.13874310630892117 0.67621682878301259 -0.26855263748119751 0.24877260967045733 0.35419524735914149];

% Output 1
y1_step1.ymin = -1;
y1_step1.gain = 0.000911577028258888;
y1_step1.xoffset = 6216;

% ===== SIMULATION ========

% Format Input Arguments
isCellX = iscell(X);
if ~isCellX, X = {X}; end;

% Dimensions
TS = size(X,2); % timesteps
if ~isempty(X)
    Q = size(X{1},2); % samples/series
else
    Q = 0;
end

% Allocate Outputs
Y = cell(1,TS);

% Time loop
for ts=1:TS
    
    % Input 1
    temp = removeconstantrows_apply(X{1,ts},x1_step1);
    Xp1 = mapminmax_apply(temp,x1_step2);
    
    % Layer 1
    a1 = tansig_apply(repmat(b1,1,Q) + IW1_1*Xp1);
    
    % Layer 2
    a2 = repmat(b2,1,Q) + LW2_1*a1;
    
    % Output 1
    Y{1,ts} = mapminmax_reverse(a2,y1_step1);
end

% Final Delay States
Xf = cell(1,0);
Af = cell(2,0);

% Format Output Arguments
if ~isCellX, Y = cell2mat(Y); end
end

% ===== MODULE FUNCTIONS ========

% Map Minimum and Maximum Input Processing Function
function y = mapminmax_apply(x,settings)
y = bsxfun(@minus,x,settings.xoffset);
y = bsxfun(@times,y,settings.gain);
y = bsxfun(@plus,y,settings.ymin);
end

% Remove Constants Input Processing Function
function y = removeconstantrows_apply(x,settings)
y = x(settings.keep,:);
end

% Sigmoid Symmetric Transfer Function
function a = tansig_apply(n,~)
a = 2 ./ (1 + exp(-2*n)) - 1;
end

% Map Minimum and Maximum Output Reverse-Processing Function
function x = mapminmax_reverse(y,settings)
x = bsxfun(@minus,y,settings.ymin);
x = bsxfun(@rdivide,x,settings.gain);
x = bsxfun(@plus,x,settings.xoffset);
end
